svm_type c_svc
kernel_type rbf
gamma 0.1
nr_class 10
total_sv 10
rho 0 0 0 0 0 0 0 0 0 0 0 0 0 0 0 0 0 0 0 0 0 0 0 0 0 0 0 0 0 0 0 0 0 0 0 0 0 0 0 0 0 0 0 0 0
label 0 1 2 3 4 5 6 7 8 9
nr_sv 1 1 1 1 1 1 1 1 1 1
SV
1 1 1 1 1 1 1 1 1 1:-1 2:-0.649319 3:-0.635958 4:-0.693878 5:-0.806632 6:-0.601877 7:-0.623651 8:-0.672843 9:-0.357088 10:-0.477739 
-1 1 1 1 1 1 1 1 1 1:-0.345357 2:-1 3:0.190834 4:0.214435 5:-0.962456 6:0.341142 7:0.211005 8:-0.999669 9:0.334257 10:0.24134 
-1 -1 1 1 1 1 1 1 1 1:-0.379909 2:0.128216 3:-1 4:-0.991686 5:-0.0208613 6:-0.996775 7:-0.999165 8:0.0982895 9:-0.866851 10:-0.950677 
-1 -1 -1 1 1 1 1 1 1 1:-0.55863 2:-0.045732 3:-0.992561 4:-1 5:-0.204882 6:-0.981994 7:-0.989107 8:-0.0708943 9:-0.823878 10:-0.917406 
-1 -1 -1 -1 1 1 1 1 1 1:-0.522602 2:-0.942361 3:0.419722 4:0.378911 5:-1 6:0.435214 7:0.432001 8:-0.954422 9:0.58585 10:0.528775 
-1 -1 -1 -1 -1 1 1 1 1 1:-0.1944 2:0.280627 3:-0.995776 4:-0.973138 5:0.146453 6:-1 7:-0.99905 8:0.283308 9:-0.889777 10:-0.969069 
-1 -1 -1 -1 -1 -1 1 1 1 1:-0.319104 2:0.175073 3:-0.999139 4:-0.984973 5:0.0305603 6:-0.999182 7:-1 8:0.145407 9:-0.882209 10:-0.96104 
-1 -1 -1 -1 -1 -1 -1 1 1 1:0.00783435 2:-0.998674 3:1 4:1 5:-0.950544 6:1 7:1 8:-1 9:1 10:1 
-1 -1 -1 -1 -1 -1 -1 -1 1 1:1 2:1 3:-0.757036 4:-0.617469 5:1 6:-0.822917 7:-0.783556 8:1 9:-1 10:-0.96182 
-1 -1 -1 -1 -1 -1 -1 -1 -1 1:0.216584 2:0.514986 3:-0.934891 4:-0.866558 5:0.416319 6:-0.962439 7:-0.946288 8:0.494908 9:-0.97199 10:-1 
